{"layers": [{"W": [[-0.011527226366234268, -0.013832288026521545, -0.008905268925412997, 0.05615869800790905, -0.010207062702630967, -0.1197882731472766, 0.02658546752541722, -0.02138699827977346, -0.0173566947316156, 0.009270782936068407, 0.01858381895253767, 0.09308469492793144], [0.052530920543893515, 0.008840574195506556, -0.059065728187585646, -0.08117298939901738, 0.01970737561689616, 0.10488646617632386, 0.003332549112270711, -0.008505863501662742, 0.042542097632069543, -0.11628362384069424, -0.024982185371564786, 0.03922900260748198], [0.06987235083035574, -0.019250373812410834, 0.030127988695032814, 0.01985707594627316, 0.06258614469629137, -0.08905777713985381, 0.04546005500683086, -0.12116163133801118, -0.20959563377750814, -0.04855125825596021, -0.07326480370767958, 0.07008097944451251], [0.053141271969031595, -0.09752597930365563, 0.06778891386784003, -0.08017622593938799, -0.006899507706902734, -0.023511982236522573, 0.009153588596873697, 0.06549090492350136, 0.05107310326339548, 0.027990808149536694, 0.05199584782450389, 0.038279363012009474], [-0.05015883721756799, -0.0573896875053262, -0.0375974619308811, 0.03994611203814252, -0.020009245679790736, 0.18686033779844383, -0.06554340337491948, -0.08790996799217267, 0.061477881237575714, 0.11374799850747724, 0.0404554152671408, 0.06686538767741387], [0.11410759819537299, -0.007522198081304312, -0.11383671465111818, -0.04256612386549701, 0.07623166058532613, -0.11549427248626307, 0.002682505662980908, 0.02025898874736495, -0.02524737318509365, 0.05789055890944773, 0.046462379322125304, 0.18571268135205848], [0.049597421421850835, -0.04875227669144497, -0.04494380738672245, -0.06652648809936053, 0.07618188478526565, -0.04534662678509608, -0.005620861896047812, 0.05994420954317401, -0.05787703925211254, -0.023492637089417484, -0.14730290124831327, -0.08659828952309706], [-0.04541891297534798, 0.033260879081333725, 0.09547946179546378, -0.0014773450530969306, 0.02090914233598423, 0.013437549483778571, 0.0867792890762883, 0.07146841589905653, 0.02189546523260338, -0.08087554427562495, 0.07227082514756758, 0.030483770236460175], [0.09815532397713762, -0.002392527414497077, 0.15624807395870768, -0.028710107225745806, 0.12744483314104346, 0.009209517808578626, -0.04130152073964021, -0.09027582982339163, -0.012082444123106925, 0.11386568209337472, 0.06530995972917826, 0.055110709141280245], [-0.19006980584729583, 0.0568771363656031, 0.04446819287358734, -0.04399410275242617, -0.050190749294431694, -0.0001848361450864851, 0.13799010105189854, -0.08440805595378596, -0.03422440277890279, 0.10894278002804672, -0.03569206395422004, -0.02914011806887521], [0.007822107783094136, -0.09930315013085565, 0.01759563441200103, -0.09676940775789078, 0.07081586482865157, 0.00025446582063916437, 0.18267451734782003, 0.02246724108248278, 0.10925515923461988, -0.10426111773738912, -0.009771147481749237, 0.025851652321128245], [0.1396576734696839, -0.1344732750416771, 0.07924957438470581, 0.04730832110527332, 0.1226836956590504, 0.05699084144629763, 0.004165694808315863, -0.04173197203345275, -0.09985437742741761, 0.015633821192237635, -0.015335741519624885, 0.16162138704637133], [-0.04888198623878779, 0.025631347616409016, -0.12552011357405837, -0.03163700626609428, 0.020891830407287926, 0.06591680100156042, 0.11584813494624806, -0.003531854106341545, -0.0893795903248709, 0.03662803195932319, 0.04135896787310347, 0.03933266742706158], [-0.05602301593397865, 0.09067075180695103, 0.007031672872361196, 0.05598596973727886, 0.10192585920755581, 0.0487417856452681, 0.022921282238541646, 0.17222361880804193, 0.019496243277772014, -0.023677138621766514, 0.008957363006642394, 0.11862149347497081], [0.009496998950944018, 0.04155021241113697, 0.09565851522657307, -0.041028688818146364, -0.13812558154029164, 0.023953852177315275, 0.01837878356191752, -0.04864081428486516, 0.06968691048339334, 0.04860539015876559, -0.07959939372795331, 0.04145747552169622], [-0.015688396712206024, -0.11864202161658248, 0.036236018645277486, -0.0036171701343512734, -0.05962263193518941, 0.04183564695173986, 0.03904746177539033, -0.04620297471554385, 0.032028175242774196, 0.08120519489539552, -0.05701333085485615, 0.03047120219212741], [0.0002204600385045674, 0.18128082485207073, -0.14898423766225496, 0.05562271451251701, -0.024499601582497248, -0.00801580390638661, 0.15212711811066157, -0.0006858521008635281, 0.17927549630204542, -0.035371837233083736, 0.028040963307848762, -0.039267800133991324], [-0.05525504100943072, 0.004998650116122546, -0.02260572202792819, 0.016199326718914206, -0.16840222941793312, 0.16019741508876795, -0.013359752702502305, 0.13943244049871945, -0.08056897008851827, 0.023402856377941483, 0.25319536811815085, -0.06957833464850315], [-0.11962398184866124, -0.04372076282693125, 0.03779907418580846, 0.0554672032049037, 0.10322933504171411, -0.020560991871465217, -0.12818006076002417, -0.03480238435800685, 0.0992178155841406, 0.03725301225370331, -0.1565551028300003, -0.0028041209350525044], [0.1118534473057704, 0.1701238509560348, 0.044934931102782204, 0.02474418502396017, -0.09921645343885832, -0.06745942991740042, 0.0037532686004932638, 0.04025581926508233, 0.046414735289581184, -0.038256684410730886, -0.09215537827388123, -0.06222254728799305], [-0.0925579515407809, 0.051472734621119454, -0.1849824884836528, -0.02666224204875949, 0.03599026656809689, 0.12176101797319522, 0.0057039740040777465, 0.0801027151611288, -0.031920325742487377, -0.05955231892256726, -0.053951443074997274, 0.12218686255214659], [0.07953769151181966, 0.038991834117009225, 0.2664215090849417, -0.0025873098020919535, 0.04962797208230411, 0.024607324204680904, -0.017750855209932796, 0.18529370782172136, 0.12052838424296909, -0.11195837076964436, -0.03198770578281723, 0.03426692306946298], [0.0626546572033638, -0.10787576558507038, -0.18044492696174425, -0.15250935750094258, -0.005688917067297524, -0.008256254323174193, 0.02761755008916115, -0.06157398223032467, -0.097939014072485, -0.16184360460634797, 0.02633498869979494, 0.029604316679022125], [0.07943949362845691, 0.06326365503833861, -0.015257246474955391, 0.10794087702027882, -0.010909352922123954, -0.05286691090544579, -0.04164627546428545, -0.04678493157643148, -0.1732589375600273, 0.012506084238861338, 0.019990847340973266, -0.028981264870567857], [-0.05710731760691318, 0.0297443059484221, 0.13734964700381527, 0.0030604122003985053, -0.040610688576776514, -0.047315776193834445, -0.005580515051612978, -0.10118124568331538, -0.01002085505584637, 0.004894581146942459, 0.1475742950212952, 0.07547790112906999], [0.08272233885199037, -0.0570358832879392, 0.05359372345889944, -0.09115059796399334, 0.024956855735269592, 0.0334989808335087, -0.061312753284978906, 0.15995038441291917, 0.04538989302005304, -0.1522182642315607, 0.044228790927664685, -0.03259294551120065], [0.00011009726530415366, 0.03726118327313465, 0.03124261338492337, -0.16313210744276924, -0.09266557948908676, 0.06180993268596734, 0.10409633993834325, 0.15225223093300005, 0.1442534590922484, -0.16444292837043836, 0.06155856967491606, -0.15330321608920827], [0.12908805828335962, 0.02026795222576388, -0.09129350303816314, 0.1607920757672912, 0.05151766962326973, -0.1512919111161178, 0.023477449396849648, -0.058491192613230436, 0.008903638397619163, -0.03721556916442907, 0.10987951090149237, -0.11386291105468596], [0.025392413460913314, 0.14513506724799818, -0.0661568239176217, 0.016851894084657492, 0.016160131276006167, -0.055176175110287044, 0.05183148982122021, 0.007764022544791707, -0.07550140038264988, 0.14096128839190808, 0.0633291997271842, -0.013368555601802529], [-0.05093398139547706, -0.06274900977684211, 0.0984752778048442, -0.011718258763243903, 0.03675505630918046, -0.014756536071434807, 0.04931275758538863, -0.009278330410070671, 0.06110830979816554, -0.014656872785722315, 0.06636698376948175, 0.05379072874797102], [-0.009328784052894452, -0.06878217923412698, -0.07520959924350444, -0.05925894561126162, -0.07875901146278479, 0.06926371370032411, -0.0037281850008322234, 0.12560807820580241, 0.18234638621641117, 0.0019377976857788868, -0.12384137618746982, -0.03051628252322252], [-0.006027873353315478, -0.11907538761222408, -0.020039462184244128, 0.022955704731350744, -0.03675422769579007, -0.0614740738330285, -0.06070054076502472, 0.14293469842875298, -0.012771686423815211, -0.06639440917468516, -0.029831871255610046, 0.0763474966436296], [-0.05477504352340461, 0.038547784746546306, 0.05823079591197605, 0.059929426576078026, 0.11197557369573202, -0.04403855837091263, 0.0906186289745598, -0.06342828798490956, -0.03172319015993803, 0.09568697384482923, 0.06579003224889413, 0.00016780404787257143], [-0.09531310608239023, 0.04493278616746595, -0.05042981595865846, -0.07391078625679304, -0.05185074035428783, 0.019719523192035487, -0.16968256843452087, 0.028861052256959133, 0.01391276957679543, -0.04676211219496049, 0.08295418347602848, 0.0489152338954206], [-0.04850273163721213, -0.0536013297416739, 0.055612118036954275, -0.12128588475328592, -0.02660979438032888, -0.05048372219797405, 0.005590198772316979, 0.016890121791261196, 0.0029430331971424402, 0.09078784609755318, 0.0182450427705606, -0.025199380097377447], [-0.0968683926046065, 0.05774798374861845, 0.04225172366813507, 0.11606476359174024, -0.059796386676144654, 0.002113443206854895, -0.004695415807515058, -0.007008868739965271, 0.0008312169061690919, -0.13716315922251704, 0.06599884272205216, 0.0522564697065574], [0.09043787206870528, 0.17996594931954804, -0.02551737549086145, -0.00289145411450492, 0.0007826852098671778, 0.1553748360566765, -0.13849757781879457, 0.03886143761659186, -0.11766650939587507, -0.206525662569855, -0.161666623319035, -0.11054148445666981], [0.0855220351536561, -0.06946883303726155, -0.018196612742513493, -0.09308102081439153, 0.048876038257979613, -0.08815692196006511, 0.1054121740804132, -0.07944843314138253, -0.061186195038289995, 0.00981928363219452, 0.0019768976662290667, 0.1139752071002308], [0.00963258304745365, -0.09662674306886997, -0.044826821927705235, -0.045822715469426706, 0.05800337769049929, 0.030703440704976794, -0.009551281840970966, 0.06956857760027084, -0.04227971337426153, -0.010898699864968012, 0.014460832346662967, 0.1222545026211823], [-0.007882654425887356, -0.02806391270517879, -0.08366696301698331, 0.05488417466531683, -0.04701162993976324, 0.027494801429431975, -0.15212879123117698, 0.08345495670520092, -0.10655502143908831, -0.062187389086033315, 0.08468649078821117, -0.10675765887795087], [-0.006356402829858754, 0.005940486486439194, -0.07988454506662747, 0.10743464012399784, 0.1199022641859534, -0.15772940028759613, -0.11591922379188041, 0.06465857619944056, -0.10424193082938515, -0.031090988285361738, 0.010364167066706613, 0.05534800658506885], [-0.01786020755290481, 0.007617673584163059, -0.062138633388038426, 0.10338892787471143, -0.039625108552142685, 0.02717863100608026, -0.040931046926658735, 0.008505879258754723, -0.013453048351997234, -0.0129971337252083, -0.08110246865683973, 0.06371302353904293], [0.11312339333906091, 0.019451847822354623, 0.05858682189981724, 0.06704543045748636, 0.07423886247925435, 0.024268540108729333, 0.016980582398592, 0.0691205817616632, 0.005506586048222629, -0.07791347150119628, 0.0019078683564745292, -0.15107323132315537], [-0.0004720191004076154, 0.03306978690379994, 0.09887846210511621, 0.012102182191767372, 0.07425118569452398, -4.30011353126732e-05, -0.0818781076837448, -0.11291037741754353, -0.07757875025098235, -0.10929181749174431, 0.05069662484154067, -0.016609174855863818], [0.045625191201225296, 0.005874514386518694, 0.08352396357777073, 0.08481542327110693, -0.05162704062217215, -0.021945276875608037, -0.04262628694196942, -0.12970496605927528, 0.05401737163206973, 0.09510358305548856, -0.0005142713019357847, -0.03945537747592013], [0.08727240231116445, -0.18759698312123926, 0.014198015674829974, 0.011462717928023405, -0.04566856436203782, 0.11132596246074998, 0.07765883352435948, -0.020892579815836542, -0.0069356792041467665, -0.03104191708389651, -0.040969592692344126, -0.10465599414910921], [0.11039587629571086, 0.08224001202325623, 0.06385330649115631, -0.08754687358208615, 0.16646761317066666, 0.1584132212445812, 0.015044573520102862, -0.07233765217119811, -0.06931440668353346, 0.03348389048707906, -0.07304113122220579, -0.0027368707405377615], [0.08709157678294105, -0.12054589949465068, 0.16045829564765787, 0.12533667271969973, -0.09896686797099676, -0.11309130353976331, -0.022673748284757222, -0.08249145602402924, -0.021097666152841782, -0.20649487723267368, -0.01829616441615836, 0.1442285177263054], [-0.0893275760590103, -0.02184550694635115, -0.11916873607527036, 0.051059002019357654, -0.018025535139772397, 0.15525864477273862, 0.016547155475152005, -0.029774397459093525, 0.04402179966046269, -0.04049823673504759, -0.10714465422554016, 0.024155821583088564], [-0.013989503856680305, 0.013305204027108955, 0.030036586604805186, -0.04082557372755642, 0.03372610979939627, 0.13901572585145697, -0.08862396237801326, 0.1389940405787292, -0.01942426007916914, -0.06133013166794799, 0.19417764569214332, 0.012401730650019828], [0.10963224036729473, 0.06540753927342932, -0.13444758600317802, 0.00966556789220149, -0.04202558077365305, -0.1073434075996723, -0.14173690930558192, 0.008183219497910817, 0.047220240863925664, 0.0312534548188957, -0.024466284412892378, -0.06388135836865333], [-0.07894889452936589, -0.044412847556756056, -0.0826444162496586, -0.01626197210398949, -0.0018309667174990095, -0.07167905319551685, -0.0185640107544011, -0.060825603079072074, -0.00035779242016406734, 0.04056701663637836, 0.01425001871590083, 0.03777206995928207], [-0.13216116620862972, -0.030295719886280343, 0.02213915013846328, 0.05129299676730661, -0.1278402690192086, 0.012734260305440464, 0.09651365188253051, -0.014288855664974542, -0.007580648918138802, 0.03603655056208104, 0.01976945471659633, 0.05397098802068371], [0.005793109126792619, 0.01219968562821759, -0.06259555497128265, -0.013635028908968123, 0.10024976298149212, -0.016333580452744304, -0.013485142358503701, -0.03932026975356085, 0.06297487059525725, -0.06837432621302254, 0.07284017560416399, -0.07495787154083722], [-0.08462249001146308, 0.01647515696752879, 0.010414357568144775, 0.02380458424111254, 0.08500296967115198, -0.03299967721602508, 0.035439487431515884, -0.07278538122793535, 0.10073352237591024, 0.05059669331360115, 0.04292150122825899, 0.015030279304782861], [-0.06284795553112517, -0.02618972493339114, 0.04014235694600122, -0.0015347295628915277, 0.009899572997727339, -0.10878556054413663, 0.01448751839009974, -0.05535419121127214, -0.0866669243001819, -0.0123748311615638, -0.14852034020900948, 0.055885599232487655], [0.0681610318152996, -0.004274887939737109, -0.0795025739641523, -0.0756295056331121, -0.012089844277458994, -0.1938986984935642, 0.01443814264594859, 0.0531545619184061, -0.024951587881269072, -0.039552189552767854, 0.014557380685492902, 0.028051525363191596], [0.08753214014927192, 0.001471734337051872, -0.055180612122707605, -0.03690120367778802, 0.014555659348806814, 0.12449602999975444, -0.025621864383015655, -0.08420213275210645, -0.06960852961061602, -0.16770676849785232, 0.026383519814483315, -0.10890594314257586], [-0.09868076220900628, -0.15808116913237627, -0.08943907036664203, 0.04547315815502542, -0.10490832933001956, -0.1399713869388824, 0.01426105071758941, -0.02729370311488107, 0.03457520108162235, 0.059244784392627016, -0.0006799144426491146, -0.10382086611054624], [-0.009903996898165141, 0.04002075841199832, -0.04663911656489602, -0.11499689981703154, 0.08820896487003882, -0.03321981145476002, -0.032738400993182315, 0.0012769793384960085, 0.0824377886007401, 0.02108958015652989, -0.026658078908564142, 0.054570667621259526], [0.17176195942460493, 0.11102290064844093, 0.05382971365423887, -0.0897824383885651, 0.30016469944522645, -0.09589256949375367, -0.02974423228152962, -0.05599113553828564, 0.13015134892184482, 0.03361920603806426, -0.1141699970282868, 0.021406974180898018], [0.04375245342791511, -0.025478641884697076, -0.09761518314516271, -0.05800267343692122, -0.03494792152995213, 0.0018185223152032807, -0.04159279597573926, 0.058817632339556045, -0.07599579984422764, -0.13851094948073123, -0.05915147550953916, 0.10791125171051606], [-0.04585250457205494, 0.18726471102329786, 0.039318738750788826, -0.09315408513954607, -0.06674289574265267, 0.01946979771150507, -0.0942115137827824, 0.18996629224252803, -0.07927126247145765, 0.05447547647605461, 0.11681039122081142, -0.008736032560373847], [-0.07966889003052068, -0.02184530738196933, 0.02897731179739257, 0.07006016742892178, 0.004537354879699958, -0.11201779407846837, 0.0033859125287764493, -0.05386865372419968, -0.17465886699403269, -0.055804815053102474, -0.11459605398303391, 0.046948352581481015]], "b": [0.0, 0.0, 0.0, 0.0, 0.0, 0.0, 0.0, 0.0, 0.0, 0.0, 0.0, 0.0, 0.0, 0.0, 0.0, 0.0, 0.0, 0.0, 0.0, 0.0, 0.0, 0.0, 0.0, 0.0, 0.0, 0.0, 0.0, 0.0, 0.0, 0.0, 0.0, 0.0, 0.0, 0.0, 0.0, 0.0, 0.0, 0.0, 0.0, 0.0, 0.0, 0.0, 0.0, 0.0, 0.0, 0.0, 0.0, 0.0, 0.0, 0.0, 0.0, 0.0, 0.0, 0.0, 0.0, 0.0, 0.0, 0.0, 0.0, 0.0, 0.0, 0.0, 0.0, 0.0]}, {"W": [[0.15553318032328628, 0.14870029254083175, -0.04585669955590339, -0.03739154961786168, 0.05510255994590686, 0.08490284896582904, -0.03349908692477495, -0.011410875061726116, 0.1765543479322314, -0.00859612151097756, -0.03882571538329167, 0.00959311870999651, 0.04637618897038852, -0.08173134857748653, -0.019872224453617755, -0.09330884949747899, -0.02226108428004598, 0.15015396230240818, 0.05933777429343121, -0.007403460057492736, -0.07464896204690961, -0.024912636758333037, 0.08405866621961652, -0.044934944824053524, 0.1160336526016103, -0.10989090842094651, -0.023203703462816513, 0.1394211466627377, -0.16062710152429438, 0.09507305258798562, -0.1481101659712345, -0.007206387765279172, -0.013802779072886448, 0.06594347925694036, -0.25236345168995056, -0.15342478502810375, -0.045281303490702494, 0.0029516032220789686, -0.0714573483567291, -0.017669358124254065, -0.0948938533448432, -0.03210183738174306, -0.06774129189521455, 0.019521704081098934, 0.046513588019414846, 0.11463440502456422, -0.052513483617301085, -0.025439345860186098, 0.003819634195389841, -0.023593541367263004, -0.004159243768147005, -0.12497429832225745, 0.02974038588561427, -0.07321532482409902, -0.07655692543972807, -0.12705009631217204, 0.09288013045291209, -0.011248728103776409, 0.09195935859040001, 0.021784134547851823, -0.13626887410367325, -0.08669571447158919, 0.06063455791524879, -0.06125461713528324], [-0.08722752390999858, -0.014350330261783194, -0.014157373020500663, -0.08094939192746368, -0.02609162044907699, -0.038279413866904324, -0.20719917099671473, 0.04021308215624536, -0.06490999730827396, 0.1043551539806862, -0.09200993882075614, -0.12636787037770866, 0.09500991551893435, -0.126804409263707, -0.05089394155033332, 0.04778693747887032, -0.02637168800438526, -0.13243775751273879, 0.015042818768930748, -0.0155458328936995, 0.10270840512541701, 0.04709183232082648, 0.24285714384892448, -0.13167152287835807, -0.0017339802635833116, -0.08533235928270273, 0.09238004006656085, 0.06574703822027879, 0.06032302612408523, -0.062186556526830944, -0.059612126030685, -0.16237439101308007, 0.13676001135270877, 0.040657543543705994, -0.020868796041567092, 0.07468122748311999, 0.06007324293074876, 0.0780211355789978, -0.12988299556692048, -0.05710687543973919, 0.015635358485403643, 0.02843369161680558, 0.07657878907594809, -0.08069084402036276, 0.010176730862222125, 0.17642830335812346, 0.05535375820886308, 0.06964503072859708, -0.001534981621357253, 0.0614101610415575, 0.14431918293581913, 0.0085313589811468, 0.09791827238618735, -0.07001115026651489, 0.047207901330466505, 0.07233733401575713, -0.06016027034065564, 0.08784993588391161, -0.05401972768264665, -0.06441914060318576, -9.538808841029913e-05, 0.15455917943812572, 0.02473223624582429, 0.07486278256435719], [-0.05854381770480806, 0.006199796459423895, -0.09412450959896691, -0.045688509867129516, 0.06685125350337624, -0.0030717844728872265, 0.1161037073715224, -0.016193315296854433, -0.015834874197795515, 0.1021345238186833, -0.05188932044905434, -0.12158116846721434, 0.10410215366308341, 0.033135030075430665, -0.17321559580625745, 0.0035623457095349323, -0.03230295993466537, 0.13958717280954214, -0.05831931305747005, -0.046461444457883846, -0.07283206587788243, -0.08432448693279511, -0.05603967365503792, -0.11487395795889051, -0.08249579050176876, -0.1285268189318206, -0.11978229752934015, -0.12477400250139507, -0.04169271474085106, -0.054695083647019464, -0.09811763181133959, 0.0382616700015631, -0.0038460705255679217, -0.034558076200703045, -0.037117862324808557, 0.12743036492766735, 0.019185128630200162, 0.0380302661595734, -0.2068831955101109, -0.05229875915236229, -0.17368054272046998, -0.03409634617460096, 0.02986481170743388, -0.05394382136779473, 0.04148870641938885, -0.08181999800442957, 0.04606425180380403, -0.12428874645070279, -0.02093506010466343, 0.03358457584190744, 0.04287366305739461, -0.010181069031281355, 0.15517714157044396, -0.03315358695857652, -0.03607965939754601, -0.2207605972529043, 0.14151470595600324, -0.029519863294029603, -0.09408123965735492, 0.10567235576443913, 0.09884048987805315, 0.008666049965284925, -0.11479372549029834, 0.033518084074277116], [-0.04971135907543874, -0.09366174362914058, 0.08346978937148147, -0.17060736691089692, 0.04537306058936465, 0.036748407725612976, 0.16408086424981405, 0.026013906546394187, -0.16467451929309884, -0.06688967900565823, 0.005173353704447567, 0.028445091488782825, 0.07846528610749742, -0.15677406096632468, -0.02639597497600486, 0.07758887568820257, 0.12351758364339696, 0.14888190586501027, -0.031217534189158687, 0.0878084205285136, 0.1369369873927035, 0.09584556187142494, 0.05789482096256198, 0.06622375422472164, -0.06319074492812947, -0.11577998168115611, 0.07862783429120147, -0.027765344670623845, -0.002250686457472218, -0.04629760415315001, -0.0314325473479744, 0.01861995157487097, -0.08174874993533104, 0.005480000953341966, 0.019684390018326198, -0.006188433663098656, -0.05949038461235241, 0.06292958828146827, 0.14981095711946396, -0.048099436784513935, 0.09875702805023787, 0.07114112474235385, -0.21226013744405378, -0.06089552799571358, -0.05086722436682255, 0.0625417240624922, 0.015079030482999061, 0.03795184715756059, 0.050902309429701, -0.07191333718738664, -0.05972399612008185, -0.09783111701706468, -0.013621647952557353, -0.00952825653295097, 0.013696426159971591, -0.05818461008734406, 0.07252196785144481, 0.0733688652753496, 0.12372150469344805, 0.05690463163176155, 0.014840899077545268, 0.0537939178282121, 0.04878014314025576, -0.05214519199244335], [0.1031508273369348, 0.1374814521731887, 0.15815625443278783, 0.002818056723712871, 0.025941635463848308, 0.03330871124171941, -0.00020364505604738393, 0.04954310129710316, -0.009694388064579491, -0.015502672299851448, 0.14071857351893038, 0.013177235192150857, 0.005360816086188373, 0.07056154216259641, 0.01202663699594516, 0.02332978057674109, -0.0050851341183204, -0.09763331937242382, -0.002477737262183036, -0.0909507809531956, 0.01681209805526773, -0.0945150570559528, 0.07333673052399413, 0.05993878124790697, 0.022434260180289458, -0.008010710215152608, 0.03330410236279925, -0.15719986698065225, -0.08774559173586681, -0.011898661049116044, 0.02762075468340513, -0.006351661776227926, -0.0803688110707426, 0.010675682769687398, -0.03629603379751017, -0.08548776347177006, 0.026360161206711075, -0.01679825650968181, 0.0957186540557161, 0.05324256535634673, 0.05877370670771749, 0.02573332988048484, -0.06761423817821244, -0.07485017137026788, -0.11769264781528777, 0.2303209998050882, -0.0863555831322159, -0.016786546756437867, -0.0288311332349377, -0.022487809714245847, -0.04672404050771408, -0.14946758794165296, -0.07985549899945542, -0.1112535624181804, -0.010142367279486147, -0.05473595242814387, -0.05497442071148779, 0.017270339651871656, -0.04662280630866043, 0.07456753093374513, -0.030894382904715533, 0.01801253825792062, -0.1060237374474144, 0.05254984167215511], [-0.03241467141754192, 0.03270064666322244, 0.026400413422490398, -0.013875452459674845, 0.017395129303594103, -0.03082371487622299, 0.10768878002730031, 0.07474310837474836, 0.038599540863899814, -0.09441123320426753, -0.0879444524464635, -0.05310892555053576, -0.01960020348434385, 0.035841253519147104, -0.07172302789162445, 0.09416592570748566, 0.0002875860832688023, -0.16102254197611238, -0.03802536904474041, -0.206814822758542, -0.060138296551460496, -0.04393022795624029, -0.04883281076559087, -0.026020283380587303, -0.03152814519057502, -0.04749874828810494, 0.12019975296374666, 0.09719217981059516, -0.09134725254318711, 0.10031199188107254, -0.12970939855044505, -0.06516897357736615, 0.12201541967215841, -0.1791642670467168, 0.045982853034636256, -0.10027952932477865, -0.011520009984232787, -0.014416256856231362, 0.13577633693638338, -0.06484827531868642, -0.005521214659736429, 0.050161585246816534, -0.020142199317058976, -0.06576538614123525, -0.00473598238816163, 0.0074809188686055655, 0.07072443471272352, -0.07544418764827823, -0.03593044107904411, 0.025835415161940288, -0.013373394986989837, -0.014822418478515283, -0.0013602482659316707, -0.055667159058951435, -0.06397523213061584, 0.03525841428875694, -0.08760800742333157, 0.09323070809660594, 0.017384393055727202, -0.10212328732548985, 0.022642159657220842, 0.013382287926851292, 0.06097291070271713, 0.09270796574760037], [-0.029313529253171936, -0.05662101661651936, -0.048478523511007635, -0.0784870743040733, -0.05971532534649053, 0.02276019500890734, 0.001221265025506518, -0.039308560578633606, -0.05906046486259304, 0.02783090156091864, -0.040127921017748626, -0.08321253942184646, -0.012133988608491556, -0.02115948784759672, -0.08560330344773481, 0.06617410850091276, 0.06768099438837495, 0.0032714947608416434, 0.010483229512723733, 0.04218464797972629, -0.002473797781087026, 0.07130337957141294, 0.1324806787759588, 0.006439443402090767, 0.035220273918156915, 0.06987613343690892, -0.027043424543894808, -0.0902643613753507, 0.07248006522769505, -0.12550114853970093, 0.14310693520176557, 0.06963467427056887, 0.015015293560826039, 0.004087674712679489, 0.14010863584903516, -0.07569807654189659, -0.09281547682589006, -0.04785087397697149, -0.020943798725617625, -0.08051753923164233, 0.012308885885676555, 0.010875595787419952, -0.06510857183902564, 0.12824421219548504, -0.11136591519024025, -0.1021378286924249, 0.030089602536676054, -0.016598630739571466, 0.033418148393661785, -0.04951764967502075, -0.08266718224140077, -0.051643477900534765, -0.0546876245628803, 0.04199968066676567, -0.03839666831790547, 0.06091443019929438, 0.04704602766439517, 0.0832477065840373, 0.07205752230601681, 0.06274822591657961, 0.061588237520789235, -0.0413353815619381, -0.020950731339222976, -0.1464101708687549], [0.023340044951407832, -0.05390127307920288, 0.03212363714804328, 0.042198726286448746, -0.10816749636762633, -0.08110714927948409, -0.027947706860064127, -0.041408052450555496, 0.013361614730840599, -0.09243390132899185, 0.003774266572421914, -0.13507884334511924, -0.17240882875961216, 0.057333091167646115, -0.10442507912928523, -0.04479341660802586, -0.11338903494804382, -0.11270966320550621, -0.03190852477567673, -0.032810269862598246, 0.0786069705950389, 0.03596096087311412, -0.02088948298647697, 0.060614682452849636, 0.08932433744056514, 0.03290383855013048, -0.03250529102604532, 0.08148827012948628, 0.14148173008848763, 0.05284274549693804, 0.14165412723205945, 0.07412791333309877, 0.06790868665028411, -0.08721491879341634, -0.08908394767774042, -0.003958678773200585, -0.13355661551228926, -0.04743630503923797, 0.06938699153609912, -0.05321243344158243, 0.04265528149246221, -0.10810007172478986, -0.039491281374888935, 0.08187523435338578, 0.016680994950823796, 0.023222602174227797, 0.1363779065275703, 0.10374428019903574, -0.07014855225581805, 0.10543188932029095, -0.04921952981174889, -0.001407186617589062, 0.001217046757505315, 0.08584321974988109, -0.09034133107461939, 0.03614887072336688, 0.04192119036637377, 0.06492106182703164, -0.016830863786146195, 0.08027297866968627, -0.056923518876219895, 0.09176469974146455, 0.028179213440818477, -0.11200663193702184], [0.03263362706732078, 0.01434436750224198, -0.028452507556209566, -0.058900288482521754, -0.01921543654584312, -0.11537256105554392, 0.13525755712672993, -0.09026230440544308, -0.052902648320536344, 0.09159192384468577, 0.04680246764844689, 0.057619629705780835, 0.12133667609600501, -0.02497141885389357, -0.08371959392310462, 0.06754143753926323, 0.0637022632188571, -0.026151153707577385, -0.10124639386685051, 0.09913204412631356, 0.04606779105324064, -0.10987791373470282, 0.06239630532209724, -0.11527819240659032, -0.038610435305632275, -0.08986475605524548, -0.051026445783116776, -0.06666488039806605, -0.0490648650271901, 0.0579411169637613, 0.02356727736456582, 0.0502985281635731, 0.0873873698834353, -0.02981620036661123, 0.006391574660335063, 0.04305223982701109, 0.1365390858079076, 0.07192626027056295, 0.1105240924336334, 0.08151717795669822, 0.08458123339787144, -0.1427736132735159, 0.07046873553787668, 0.01703398773750373, 0.004337149951628634, -0.04218041106522168, -0.0340219262624516, 0.033294459106162556, 0.06719806108628035, -0.11982284839465317, 0.01744830565275143, -0.04485494229178367, -0.07606422130571515, 0.03140978202225751, -0.026297426551613847, -0.05272293445393895, -0.0615332029132122, 0.022503907892601434, -0.000803061940117106, -0.08733123015669962, -0.06727981038047708, -0.014600518371505578, 0.03241182481041676, -0.08397716048761952], [0.0390485274343548, -0.06592021796902978, 0.21821956789593885, -0.07528022897093013, -0.06321004322301026, 0.015520269988291955, -0.07219047737299561, 0.06621049844833729, 0.14411330774054235, -0.031009584328767322, 0.013821683297155232, -0.04142077330267938, -2.311278521811486e-06, 0.11453875348024413, 0.07153969581653573, -0.0723379946803106, 0.12367234921725645, 0.0929649063199852, 0.03890946549872746, -0.0527373933055428, 0.005256603178845123, -0.06363727526969867, 0.03740846157375589, -0.025317687865900055, -0.1787969623024376, 0.07409624450218943, 0.015316243014638797, 0.0862786455307276, -0.010894378651699888, 0.015077329513160483, 0.08922609155893614, 0.031023765714299118, 0.023040138417425752, 0.2571512777527387, -0.013520015265676031, 0.013534859982273119, 0.13872229609389852, -0.06440061612227975, -0.08327978411881831, -0.11456526404660033, 0.042692996747627075, 0.05005045957975412, 0.059319011724393626, -0.10828480640373628, 0.08046873275855099, 0.09578127051147321, -0.00778490597261479, 0.002605317276483224, 0.0540476622609763, 0.02937148001144, 0.05135757320346497, -0.0868868846372019, -0.01396979085811276, -0.09699786877909829, 0.05050215616449978, 0.04241731698213696, -0.007905199264643469, 0.023743938352826736, -0.12452130865047752, 0.0686340211509713, -0.03738168559374963, 0.01032408107325809, 0.08922957751828665, -0.06052004866198843], [0.09577868145450166, 0.00992602476095744, 0.0022552124414302807, 0.04448364546904696, -0.09976204659734261, 0.04752849420488696, 0.004920756696420069, 0.08290215700839475, -0.01734456250362485, -0.029065395742560198, 0.029571052212538366, -0.0047494234019334215, -0.0939174939649001, -0.015516618381689402, 0.10141040158833525, -0.0074482980693353455, -0.06963679686141842, 0.05727496041735819, -0.1482754936219584, -0.16962138005003735, -0.00033202369385417667, 0.014474018469145066, 0.017631936930107426, -0.07142263129532579, -0.01203996961081493, -0.11189866014745406, 0.01756498485447576, -0.12922550836638247, -0.01193941933433636, 0.020926344890637622, -0.14053005595390908, -0.04180023404087486, 0.06305169971320586, 0.12391743068725104, -0.1203168230601297, 0.02719347667452406, -0.09887594997723585, -0.10762064015266982, 0.1276859064851484, 0.053454578867978844, -0.06433554378630812, 0.01752221350639232, 0.05135570690110596, 0.014503412511347069, 0.17978229949595517, 0.048462331291070804, -0.23943852963430756, -0.023215981005367564, -0.058926097431385396, -0.016331742224512273, 0.001077271703930107, -0.05209143407746884, -0.08679340847968046, 0.10907243927541668, 0.04778735951588537, -0.05365914802101335, 0.054371972274723145, 0.05401444532057816, 0.10138459689170821, -0.08442506612601544, 0.06239053034837805, -0.048623067560563976, 0.09240356570873229, -0.015395932375683548], [-0.18174233861120823, 0.0028283178949229724, -0.14273300176133333, -0.017371954075526493, -0.004655330416411767, -0.032104401264807805, -0.11895359082388439, -0.0892583125774943, -0.06756724794659891, -0.019848688881796386, 0.10307998239305849, 0.056726834429939886, -0.037775618679167795, 0.10191021643194814, -0.10944499896811144, 0.054801705365119066, -0.014018776016139581, 0.01890598325156956, 0.05107697556365735, -0.054366001329223125, 0.06409265071095228, -0.0007447988986092778, 0.19294391216694667, -0.02434088681682151, 0.10153398692250801, 0.05176723407965532, -0.0939301133160574, 0.10884977913877159, -0.0848328642901604, -0.17855961363056097, 0.06826525488095632, 0.08551627082305124, 0.004162050485009043, -0.020881544953974727, 0.12669454395928262, 0.05694944590285117, -0.05246927389821909, 0.058522638370877546, -0.09946333037761619, -0.04471743501582811, -0.08409040257607366, -0.1760013904030689, -0.09418340379643797, 0.09778623224640506, -0.08782575030895551, -0.04400256240025615, -0.09287789466567643, 0.0692485773299262, 9.579585338094948e-05, 0.03925962348545327, -0.008454942442519039, -0.09368215737774954, -0.07791542364749791, 0.06698127522409994, -0.004592535641368449, 0.061952135097870384, -0.25300766964061555, 0.08880869885508279, -0.03951737514758422, 0.17382857971165108, -0.04086040665665427, 0.002261509734359452, 0.05283021031979972, -0.07006361282480979], [0.06981903447711515, -0.05161727270842512, 0.10312824705808886, 0.06345650053879014, 0.03965093173008304, -0.05793553429784544, -0.01684569348709871, 0.023992928668775088, -0.16266741924350508, -0.044139943717295176, 0.07504588031131487, -0.10145446179331005, 0.10231826460465632, -0.050265215042937295, 0.0258605874432393, -0.09181310797665815, 0.03875026115427521, 0.0370182424660625, 0.09090991660924655, 0.10832560826486398, 0.10028189533623902, 0.016713518702230305, -0.09809312946903168, 0.10590120670248196, -0.1043307788644761, -0.035096786426859594, 0.05896868872328148, 0.03548461534680359, 0.1274452306899805, -0.000324274129182201, -0.1352055178479277, -0.022020672371297095, 0.01392483915304253, -0.028048722194817858, 0.11299628413520367, -0.019809008918377148, -0.11486778399551106, 0.03734315724947007, -0.09181481735191623, 0.13599138717287576, 0.02160753638136048, -0.11226275197200503, 0.08635134614632145, 0.18953972385266046, -0.1603244842430042, 0.0722458807176763, 0.03872220642716145, 0.014054423755879205, 0.027466273610161546, 0.03935085318737027, -0.05544038682777156, 0.1128791870494222, -0.10796193288144364, 0.15668506962238496, 0.1222149772971721, -0.09489080372878475, -0.0004320104800381753, 0.11358871897154557, -0.039279554680387296, -0.012992683578982808, -0.03219019183782552, 0.09339782464045286, -0.048614620249939906, -0.0007860475611968669], [0.04321723214945791, -0.01660813696219009, -0.06931452205433837, -0.1073238881825589, -0.12146051508845788, -0.09438434002228516, -0.1376439643189692, -0.05815014303378436, 0.024017184420685078, 0.004327629505255799, -0.0661306464932227, -0.08144151643063335, -0.07947108503347013, -0.1110318418152802, -0.09887020621997955, 0.05714892590178462, -0.11236892055001424, 0.0013852678919007335, -0.04944430801201308, 0.1942355589422251, -0.1437542426619685, 0.015464068394057468, -0.02670004751981958, -0.06169042915839363, 0.025217036343371687, 0.012446769381961499, -0.08551241312609907, 0.03410218870740898, 0.031133486293521164, 0.10475757785955646, -0.04879769706299381, 0.11763555505164393, -0.015745388663788322, -0.1580809880818089, 0.04184766405796216, -0.0065272165410679775, -0.07058807647490897, 0.07465922750807016, -0.037730262741060075, 0.08135084861601989, -0.006616090209080089, 0.060025738864694686, 0.054358220892054866, 0.03785343324116228, -0.08256347433379617, 0.07357703817282624, 0.0017409380022169441, 0.16018086189166397, 0.038293590663605125, 0.06009009872196157, -0.061191436441617134, -0.03249132684780694, 0.007737439546346398, -0.09363808334829604, -0.09362218959313959, -0.008686620632010143, -0.006229695914352382, 0.01616599094628928, 0.08936833072032789, -0.03202698897181899, 0.054470056724501344, -0.011570826915836418, -0.015520953163005035, 0.02056544417503134], [-0.16541826172236665, 0.005308549160587274, -0.05106059796327627, -0.07438708313809855, -0.15095931338977628, -0.035431287277364866, -0.1501948857498458, 0.06960985274892913, -0.019144585542643696, -0.13456574208993347, -0.05388198997845414, 0.06039630015950732, -0.047590677345218504, -0.022497424494207757, -0.029534657133651387, -0.010262088368845748, -0.1359813634760016, -0.0036367742354248447, -0.044647415696937746, 0.23630234113119453, -0.017040670396333234, -0.036449967379246564, 0.07907816056029242, -0.012482573560413442, 0.020267375259820416, -0.06992927732302338, 0.12441824563570408, -0.05021397403353528, 0.03002802260954963, 0.09058860247057955, -0.02436039393210884, -1.1923989191270632e-05, 0.046921069377046855, 0.05461455307699237, -0.08720783879909369, 0.01451865839370756, -0.07562952284661864, -0.059629616486765256, -0.05187129412672472, 0.09727822800578269, 0.12772618672968028, 0.20843620751037295, -0.004524033470412583, -0.0673125505468861, -0.07755854167921349, 0.12859846311875772, -0.12307025593241225, -0.025357484678656478, -0.045285043669424284, 0.13999962192049017, -0.08106752791663567, 0.08813306698078117, 0.1050682459437488, -0.013341602123447547, 0.037239623581158926, -0.1230971465126037, -0.007056624946090125, -0.017202164435063685, -0.20636661158814992, 0.03323015747883442, 0.028413313345293904, -0.13547008401612204, -0.11298206634475293, -0.05994313162956516], [-0.04233454258339063, -0.024509271672392405, -0.07664993849171617, -0.0806285704597589, 0.024521059504064073, -0.03801984312503562, -0.00854404827019244, -0.0183743895157114, 0.03657602480847489, -0.012341990558649039, 0.06892315753179389, 0.008239882245161262, 0.07112274387763158, 0.09976657800040961, -0.11683803650892495, 0.07375960971327783, 0.1426257718720487, -0.07780233023662458, -0.0025496566000515865, -0.028576327530119322, 0.0352667145655691, 0.04159934983848355, -0.05354364817924119, 0.105004521789512, -0.0685344649350088, -0.011065516295917588, 0.08188738268529816, 0.1562750313575579, -0.0410124193984319, 0.06258356895740895, 0.01760333637724359, -0.1265954927877332, -0.07641506073152925, -0.09638166140285594, -0.040265364416332786, -0.0333430531323177, 0.002235903500441193, 0.10221551451009603, 0.03379809443780494, 0.21224501248486988, -0.019474235332515435, 0.0631402337089602, 0.03315293557554745, 0.12052533540628949, -0.030297284407697793, 0.06762062771666004, 0.13032582057194858, -0.05766502770268142, -0.005989732929492772, 0.0403445044935504, -0.03478235604381867, -0.07001952530842072, 0.14661863966916303, -0.01837200835284672, 0.13872744732570427, -0.04067402529871618, -0.016567113403684584, 0.06377113170457573, -0.016481531720992443, -0.0719094514749134, -0.05759289467238841, 0.021813788667410346, -0.0532891214547404, 0.0070454202852359375], [-0.18058286808549703, -0.04464978205919258, -0.014424940543336276, -0.04101133643691814, -0.07948692945333846, -0.07068036638144456, 0.005641671259709852, 0.11896476204854826, -0.111874107242613, -0.02210081679524735, 0.07816396821485999, 0.02675662839337406, -0.007500590540060853, -0.03605700827572177, 0.0010609508227043389, -0.008085129342432997, -0.17491694092386437, -0.057262658502984405, -0.1559671135675591, 0.10328452215731862, 0.06581188052319724, -0.06305872735723614, 0.06439022116445071, 0.19589179936812937, -0.049846116884697, 0.10394200855255122, 0.029000409339293248, -0.01893593758968661, -0.08847284399790026, -0.04447400419244565, -0.0315930013030369, -0.18526205048856567, 0.042436949700242706, -0.025738503586735472, 0.03673953735762026, -0.033538178105480695, 0.23986181947675647, -0.13258277086480777, -0.07464475637497918, 0.05641643545214909, 0.18867741927601173, -0.07939349598237284, 0.14633719160027162, -0.07336235275005103, 0.1034693699155883, 0.00603156391240744, 0.1783998832416625, 0.14255882139054993, -0.05181781367777189, 0.23485611720458, -0.08993270891933723, -0.02508965540663336, 0.14463225099900515, -0.058782648456493364, -0.0513081084209144, 0.010450431784419715, 0.03619893371997612, 0.030974584815838424, -0.05965578817508466, 0.015751481262074145, 0.050994032695285275, 0.12031924768509282, 0.026252839056930318, -0.1002383550599208], [0.002273399778840787, -0.04964748580384759, 0.10552247268084562, -0.13403379973028792, 0.044778651095814144, -0.08523170418818486, 0.1017645698964598, 0.06169296989893052, 0.017546491354433032, 0.040395096945151095, -0.026950406302428887, 0.054062183398001576, -0.003970134580963829, 0.05849632054757471, 0.004686102051827283, -0.198495318824427, -0.041092614724459776, 0.1213993960738216, 0.11620321725086308, 0.008363929641762318, -0.01008268624850662, -0.02681985109584201, 0.050444872336043466, 0.04632301794789307, -0.07832734711771398, 0.052932011562334846, 0.09863172888011607, -0.07638918571089957, -0.01494730672338668, 0.037085187218262254, 0.05782023739568513, -0.03364280800096303, -0.04229420711929715, -0.037110827839039566, 0.030818609538656158, 0.034329529215237964, -0.001553403510094219, -0.10913791643405932, -0.08719894495352991, 0.05094592268251908, -0.09768705704869772, 0.018108563039769425, -0.028863809736090013, -0.048178280489498536, 0.002135876909231717, 0.13410816729531355, 0.02310532656534928, -0.023653258130054824, -0.11786972743487217, 0.04097907266650081, 0.09093626829620431, 0.04859008373704993, 0.09327632857919581, 0.03812785422700115, -0.10426198472663972, -0.003595980867969831, 0.04198943867486853, 0.05768092203746735, -0.03944611522626651, -0.005069227655289682, 0.029269571382579324, 0.10170344134373968, 0.08041910414316317, 0.05170546564583694], [0.031697805014775295, -0.08202250934334052, -0.08807678525142189, -0.007348372366933264, 0.08332667064606421, 0.031628273878530955, 0.04488767482532823, -0.120124472964064, -0.11693230052050967, 0.08959070612279858, -0.002771074271540726, -0.10509503031714708, 0.07057339409735582, 0.020642892907274613, 0.2361171419606195, 0.10000003578652872, 0.027735785970438666, -0.012088764830682427, 0.018583640650951763, -0.008212173664850666, -0.11510373718572398, 0.07420176957764425, 0.0219886013995216, -0.22037654281047914, -0.050841858010803216, -0.06629934712860999, 0.07847121461354634, -0.0035244152081273052, 0.11899254836531924, -0.12732156749587684, -0.08606288931920923, 0.08536756213795686, -0.052417708105392674, -0.08469059132965182, -0.04213371221288111, -0.060785941774287096, 0.04314622778334976, 0.08945340889254733, -0.12695353849050772, -0.023262119535477254, 0.0011395103794168986, 0.006575490765915069, 0.06666044557289749, 0.00958776849180456, -0.046384268558939, -0.088951481675245, -0.1459767417088273, -0.02968895379508313, 0.0011527899971379488, 0.07373799048711834, -0.03022152892325081, 0.18589634194047147, -0.006118366884794406, -0.03866750075260495, 0.030447620950529705, -0.07764471637118725, 0.016712643307275593, -0.1651277483987955, 0.05408752607289054, 0.005334292474096899, 0.016845662603611884, 0.012384700639999613, -0.101900485527477, -0.07188971150551045], [0.12531399304710214, 0.039567806438312245, -0.047781062417729406, 0.033686444365427864, 0.03261687205618634, 0.1563587570684586, 0.08882807086935773, 0.032893495518209755, -0.03593481936771606, 0.14269519321093127, -0.00812389216890954, -0.06964095378414108, -0.0976197188736226, -0.06899172304384746, -0.029126819533363612, 0.0612321186493054, 0.07305483390071564, 0.09208558269483225, 0.012238135598815432, 0.06651940240335309, 0.18074524606695033, 0.07282315364165408, 0.1282306059629026, -0.12085108408733407, -0.05934391605172207, -0.060089196454257254, -0.21416273944625172, 0.005894261814525136, 0.11139591942494467, -0.04282535031013312, 0.015635378470715305, -0.06832433574157536, -0.039338211589082725, 0.022824787401461485, -0.09566206175038695, 0.09392264248754527, -0.1535007354533737, 0.025778727046904187, -0.03931854181625021, 0.11913157960366022, 0.06094760735435238, -0.16673273130575741, -0.19379172855857574, -0.08010851284696414, -0.04017811020926132, -0.015120555252736072, 0.002419632669141428, 0.05388768144913378, -0.10927925704619484, -0.1440437321841676, 0.020196917040400792, -0.028878480897475176, -0.008269866585810255, -0.05134638771540826, -0.01385670113637643, 0.11892055228957511, -0.12986162361065287, -0.09804243587196716, 0.051328128201484205, 0.12539262132796286, -0.016451912585925103, -0.10101726859985265, -0.1600895956166136, 0.02084339573950143], [-0.09994833770814082, 0.1740463140510335, 0.18732828287242156, 0.018104103457100586, 0.038836936127766876, -0.009433019396097317, 0.09134365289955416, -0.00024563821825075694, 0.005068540208345025, 0.10883226098434784, 0.05009460158090148, 0.17047850271336606, -0.13094636447258157, -0.044446593446325074, -0.07231248120863003, 0.06734233354606727, -0.039487228216231136, 0.04818655902310244, -0.09351903632986418, -0.00754728749609353, 0.18375963518025124, 0.1310694577167409, -0.1502825547136599, 0.029166917139753563, 0.06610823367312996, -0.03947259245818087, -0.08819042437334768, 0.05295902435858049, 0.008066034405483083, 0.04420326948765837, -0.012644114812603737, 0.18649321459894744, -0.07310728647918499, -0.03967989898816402, 0.04119083653632708, 0.05853934109264976, -0.11029709046164712, 0.10378501710161399, -0.11664947558552387, 0.0005119680036923581, -0.024562130445709082, -0.05660998487534375, 0.09066003436964697, -0.18776422274184348, -0.05846262498445423, -0.07222110807548682, 0.06999179254506659, 0.12403370528108619, 0.06203750188358481, 0.11162280177409355, -0.17796433741699638, 0.01308800936191386, -0.11064267169343658, -0.029997231009877733, 0.019573731891108972, 0.007569968105825986, 0.11006030374196309, -0.15829082722632995, -0.06685891598139293, -0.11845039882946169, -0.13110326376613105, 0.08046235505084984, 0.014593507043777368, 0.12452910275548527], [0.09481650701306403, 0.005452019754823051, -0.0775693104874067, 0.07934334344809146, -0.05532824524755856, -0.0959539052341006, -0.09203280877286979, 0.009748568997392357, 0.10124238771609935, 0.00420870535826205, 0.09795428258326835, 0.0073073654012719815, -0.03411590134873901, 0.21769389912358655, 0.1456835623932584, 0.015752558381717727, -0.0665755782835363, -0.12872235613542576, 0.032108610477951834, -0.020440938216732478, 0.03736006494705484, 0.02584329768311599, 0.03490209451538497, 0.09137820915340612, 0.02513759003117347, -0.05787552262767295, -0.061643884798812935, 0.04665014920283149, -0.08574615634972617, 0.05746737564570218, 0.05713547285749308, -0.0035106791324984593, -0.0625138621308645, -0.1421070984412337, -0.0899171969850459, -0.1300743993255981, 0.0021336873869553592, -0.03538300297270917, -0.07365292296242021, 0.0698084376726619, 0.010346230836284828, 0.0038069542852411683, 0.04464934243858235, 0.08291619569121796, -0.12822591900118135, 0.05653438772459525, -0.14471494394436366, -0.06355068328299061, 0.0809716462852888, 0.05529779995804802, 0.053179271679385194, 0.014566792448861682, 0.11303812450128103, -0.1232640627624829, -0.02441242506519216, 0.003787924128143721, 0.1628228126510565, 0.08212399249402143, 0.08307421301454902, -0.060907641209365156, 0.1799729243237286, 0.03774466874683571, -0.0804739543296616, 0.18762874376695984], [-0.11415265669780505, -0.06949598016697842, -0.0187200860599213, -0.07843357902258272, 0.042176895702709924, 0.02214101487738512, 0.009080665344186153, 0.151504546535235, -0.1307175333896176, 0.10931086146135952, -0.06597214636600976, 0.11697311223886515, 0.15241711945491138, 0.18412424310058387, -0.015241142657630397, -0.09306075753574254, 0.026234087846713827, -0.0042694854662756136, -0.14102795083157318, 0.058843599077125115, -0.07381423755201934, 0.11536070593931129, 0.077213087707186, -0.022506991363468228, 0.0028931489575584578, -0.019405379140626098, -0.03659146413662975, 0.24786485255931012, -0.0748957504998383, 0.004427007080218339, 0.0793177256397455, -0.030747125160362036, -0.05028342302920219, -0.10632808379280917, 0.09536282662007002, 0.05696023959485626, 0.03759468911149566, -0.12070367002356298, 0.040286627094304306, 0.02282435257700095, -0.027045102071604148, -0.11013926367791832, -0.004534608660797483, -0.06966736571043834, 0.006402782044932981, 0.005067205066380749, -0.027052661104887427, 0.07056187705887061, -0.005284044492690524, 0.04232695648748667, 0.033472186541700366, 0.0806538517218991, -0.07712477565787772, -0.027624387717174556, 0.0737595606110744, 0.012282626854015178, 0.09006442022570138, 0.059619423669333864, -0.035574406189625214, 0.07044087522215767, -0.02059885902322188, 0.07652835961894562, 0.1483011543851523, 0.08732756055291625], [0.1831600733971669, -0.12412655480872573, -0.043869987231391246, -0.021307567010029924, -0.03202324331463154, 0.029795843162171085, -0.029448683430415762, 0.08848859398120272, 0.07878083879275655, 0.03307787288876684, -0.08097706300743385, 0.043789902330060956, 0.05394320125271619, 0.028310834421478418, 0.002400567344717037, 0.11202678984274526, -0.043870462455857004, -0.029335797750623498, 0.05336446889289914, 0.04246330384600571, 0.06820780202413168, -0.022720862201252197, -0.10517648615206883, -0.09900657100278056, -0.03461381720726567, 0.06339401327058855, 0.06338113465262812, -0.14527289798190585, 0.04271166174674889, -0.006978125631872977, -0.08336846963286487, 0.1752620025112514, 0.02111663090842843, 0.06619321805243429, 0.20540203487500466, -0.04648955231043843, -0.03174321546325426, 0.11912125273032084, -0.10461367797442421, 0.005917255703308014, 0.0036972069411286496, 0.07761448301443476, 0.03243127142489944, -0.07305438941411312, 0.07777970611305672, 0.06761195299485326, -0.08408032769699456, -0.05502425553539855, -0.04206459974462429, -0.09194720624579528, 0.08517334422280363, -0.02590742329950393, -0.02222641470798332, -0.0830204584824623, -0.03156310848469366, 0.11879613038190594, 0.05986306056291118, -0.12939177663452459, -0.07917658287619417, 0.050848081223458685, -0.039849768198389625, -0.044259164735331355, -0.06883937226547603, -0.10648553031987691], [0.00762314982927496, -0.030421752679564623, 0.09123022962130874, -0.005336635210784705, -0.07721369104208274, 0.05550444008770227, 0.10769178528944191, -0.058858953143874876, -0.13620607235025883, -0.03831728383913631, -0.10799278507917467, 0.13132942184736016, -0.11101956484700688, -0.02621558864878229, 0.11788173203609734, 0.06969700222569909, -0.04109290724889213, -0.06264512361412856, -0.014519725538677558, -0.019212416203914517, 0.11971188431016604, -0.012373228345515857, -0.10799758664602753, 0.07886183892890217, 0.08292263137446437, -0.018143682256459345, 0.06177000275927303, 0.004099725150931601, -0.09654386646268813, -0.006485971082155692, -0.09157423651696822, -0.05073240602637335, -0.07511181983664503, 0.02662758985387645, 0.014918696070485222, -0.1055743486318764, -0.0735884017905067, -0.0002153638597192414, 0.03714943391731284, 0.005779292595076601, -0.1765435618696311, 0.1029523961049307, 0.14178493514691912, 0.12670341491625037, 0.04352831599340972, 0.053758870907336186, -0.05233538710650493, 0.015086293468722395, -0.09045032410404785, 0.009740827737058366, -0.11437543353547096, 0.046816141494286284, -0.028364477663802266, 0.061365507819996584, 0.014605900755754022, -0.036764747697559344, 0.06746607789739525, -0.09387237605401241, -0.021188191880306514, -0.04300354071636831, 0.05951779368941652, -0.006041221255597511, 0.02160149969484827, 0.042037682070751765], [-0.1876892381692366, -0.07410545221725792, 0.009274396825370507, 0.08099807196566766, 0.04580702092283372, 0.10486129344478987, -0.0177299097608556, 0.008054436238854592, -0.03998391996832142, -0.034853780290394015, -0.06643494814281385, -0.043462447474556555, -0.015237457724643433, -0.05212432476797459, 0.0021259917467590585, -0.14549072905958907, 0.034234703991037625, 0.014196547296841897, 0.0356983028044584, -0.037079754679989314, -0.04065757666188893, 0.07858887502802789, -0.01236029829510547, 0.15892395068337922, -0.11248941517981406, -0.019789186058441457, -0.0901898858850388, -0.06293956660085259, -0.06319932916375925, -0.038458582223168815, 0.06262736887102513, -0.09151152384407411, 0.048800939332746984, -0.11527102040401697, -0.03244205374190595, 0.10558474949203632, 0.036963423133066775, 0.021782426839373526, 0.05040847424983464, 0.0460780011870389, 0.05024045146419824, 0.1122930428800928, -0.0830763489936097, -0.005659138780028672, 0.050981509903869994, 0.05997138282384412, 0.04464463285255908, 0.10452292635365237, -0.040079619636785864, -0.10797761559109667, 0.10179095346021033, -6.424331870845798e-05, -0.043894912032426577, 0.0028607679036009295, -0.03458209671653905, 0.08049663806290555, 0.07121332469177458, 0.024938627745719165, 0.043269567077377946, 0.002608610019226612, 0.08212071641960873, -0.18906556714415043, -0.09345560969823043, -0.003194442501354259], [-0.03307819107434125, -0.0760412439342861, 0.049597484729807836, -0.0782706946087807, 0.017388901583442213, 0.009943176791714387, 0.004615757281165866, -0.06633478381045568, -0.01545324665185883, 0.09815495527557548, 0.043481867579027236, 0.0770270971183466, -0.006406558548302363, -0.13618264810482336, -0.03731745403057345, -0.012054235218127379, 0.10412065297049632, 0.09087630985542682, 0.033987612355210715, -0.06852221208803111, 0.010275777187148059, -0.020938519428908106, -0.019480660566035177, -0.09868176805028664, 0.037112372223464904, -0.002387420893893529, 0.06435054552890787, -0.1169301094314322, -0.09015853941677275, 0.2917017887288469, -0.07040401030453293, 0.02300662249305461, 0.03502040925126006, -0.07857484304176451, 0.13820856854636346, -0.005249609200179186, 0.011958403253682102, 0.14547090679840177, -0.0632816738626205, -0.03901127822349316, -0.027641023882507183, -0.10981171349246997, 0.022067157478720536, 0.03784431340844206, 0.014665596727480674, 0.052466428144181405, 0.06925232618991575, 0.02709622460086334, -0.019315286940825217, 0.09763333158588058, -0.05573310969241787, 0.11170860344416404, -0.015436509795008069, 0.06118422136118665, 0.14612415816187097, -0.18118381037948136, -0.015380830311492262, -0.03231586892147257, 0.13659092193646657, -0.03254579228090625, 0.21832156014855797, -0.12223223228849918, 0.02796044383594604, -0.030904149567175115], [0.0404072266725103, -0.045211495669553695, -0.03608255144789957, -0.14582624299330182, 0.008653893713076717, -0.11983376138280376, -0.10477351607656127, 0.006949606183784626, -0.009707932770640524, 0.0821671946581096, -0.10825036806416101, 0.03368096228663585, 0.02580001149113672, -0.024189694548208362, -0.0642908363048533, -0.006327392837037261, 0.07071887246660614, -0.02990045942221307, 0.06778360127434058, -0.021904653467627565, 0.1379836454257455, 0.0021442800619081615, -0.014043390314708016, -0.12886623626018318, -0.11417214323136497, 0.03050322106192505, -0.018195986854110772, 0.02250212866206313, -0.054771351842028956, -0.012035054617555217, -0.04989558404136978, 0.023615888992862807, -0.017453126655237263, 0.14917212781256056, -0.055046172566532346, 0.08950478081128481, -0.08435943672091581, -0.03722657418963255, -0.06732350962472003, 0.10077097854902776, 0.0349591541109677, 0.010973853367921525, 0.018756396955863643, -0.08674946813318368, 0.11223304025302142, 0.11116231059130544, -0.0027439820206896855, 0.001060854088549421, 0.05193084407004957, -0.014020343726393316, -0.016014120487056614, -0.03942435759540319, -0.027671258322826228, -0.038084810314711136, 0.058388237449458334, -0.026263742615895338, -0.03426916160220786, -0.05014579247018443, -0.11995973668447667, 0.12481453896741426, 0.040687683203582264, 0.0693200607684634, -0.04239180005065411, 0.11657604613607321], [0.011616224435059178, 0.11621091906959434, -0.0010698780406490278, -0.0035731787056686054, -0.04223636195988008, 0.006198953763490428, 0.017998727772844118, 0.11941571775475768, 0.12317703333186432, 0.007195747363701274, 0.09752307432176532, -0.2174121086545363, -0.03762339344970385, 0.01997691223718412, 0.07096973109835449, 0.0338480732262267, -0.004484253524220932, -0.03691981120646089, -0.06398125585557182, 0.15215683382551373, 0.08977806241101305, 0.10462217177511798, 0.0008484659219781333, -0.0427575472593436, 0.04437553439164372, -0.0019697159162577376, -0.01024621016675256, -0.0019885029095670134, -0.05063610135679051, -0.06971323156574177, -0.019392364841308442, -0.11083373460224025, 0.04785998132820761, 0.0670840603846408, -0.061563118766072476, -0.14619439491915248, 0.03148636218441178, 0.019074596711010534, 0.0016405629810554135, -0.1067542472571408, -0.15341923691555306, 0.13692474911879676, -0.01731263684214407, 0.04035193206394956, -0.00565998261650673, 0.03308320841826055, -0.10226127813588519, -0.03565675413869536, -0.10842904709711876, -0.08697223220853596, -0.05672159522908416, -0.1445239593291107, -0.03689594555296926, -0.05687111141078335, -0.09489719194779456, -0.010627128255223914, -0.0009072546788546146, -0.06695788129109365, 0.16095771914850673, 0.057456593094633954, 0.08973252591356136, -0.026270665682434528, 0.07148795384484395, 0.06124601114930593], [-0.08148056166397781, -0.054576794540264366, 0.23321778526886827, -0.032897414508287516, 0.03894889602518464, -0.017168129607007806, 0.06651177451207992, -0.0795668249724765, -0.080423391707693, 0.0907472488191484, 0.015882594395021498, -0.19820967011514057, 0.0018731480472175873, -0.014557416527643299, 0.05685345871033004, 0.025684328518305048, 0.02737573730127118, 0.006997159321197073, 0.023237500252714663, -0.09220988365832451, -0.06519197770384204, -0.06818483467078483, -0.10729276328935267, 0.06306031104863584, 0.08620671426599559, 0.04911963295745192, -0.04809855271581861, -0.04297024822290276, -0.03518996722517857, 0.08903186025787964, 0.04213022661276068, 0.13911282054302374, -0.07756621257012902, -0.01805088275102889, -0.10085439158507181, -0.11337934248607474, -0.012420787109060551, -0.026856479097688908, -0.04102535885949168, -0.12277790257314031, 0.015741583334023358, -0.022709571359545842, 0.07318924073346682, 0.04404020168985095, -0.10493933621754961, 0.03165535007253571, -0.047909458546212175, 0.12260045651744347, -0.0023670724711744714, -0.04028107456902819, -0.03252329313964443, -0.12007177504700911, 0.10195653634813595, 0.16954838872261033, -0.13838375114302126, -0.020143437076414156, -0.008832373387073971, -0.047542159111037804, 0.09740292677117256, 0.09979512840611257, -0.019627486104681933, 0.16570257589164303, 0.002621664231949577, -0.019352331129902117], [0.022384289561640302, -0.059682631920717044, 0.11625063609865631, 0.049330899921542604, -0.028395678740954562, -0.014841496435906749, -0.07262177122503315, 0.021000747798448946, -0.10349103631885606, 0.00025359557115320607, -0.041376433166412374, 0.045364467615262555, 0.08340546300731705, 0.06295504736768612, -0.009805646116157038, -0.056769902708182135, -0.023972969614461232, -0.0013306264621441666, 0.0390334975735452, -0.04545397843505144, -0.07738234078094613, 0.013874133916530642, 0.1087041765995501, 0.14978596821492568, 0.0634559825598939, -0.07922111205000706, 0.11268744566340441, -0.0676528163292543, -0.06164575545650799, 0.034208856825215954, -0.11042602217861369, 0.06413441486856065, -0.004290337632070339, 0.0319298295679776, -0.06587433203892461, 0.06771418865808704, 0.04104988926361597, -0.029066271935398978, 0.07562250235105011, -0.21282288601173036, 0.02898492093318731, -0.00860301333367813, -0.06359991005544272, 0.014176754618803487, 0.039984061927827226, -0.0589569906690451, -0.009562120401755922, -0.0033135927297164463, 0.03143132670803687, 0.09814196936411934, -0.03711599219574307, 0.10535342987037492, -0.10433775603244845, 0.024062167774285333, -0.13756869660811244, 0.005742161330264578, 0.05778034209826242, 0.16183754027787742, 0.00394853587070026, -0.05986518695052826, 0.08211967754739838, 0.0032925789457830218, 0.007867028810656772, 0.07336142428079526], [0.08742001135851672, -0.13857032489643528, 0.00412399911299323, -0.0013116569370233702, -0.08556559864178656, -0.12991197624618583, -0.005347695287165908, -0.03709857363496126, -0.05797584738759943, -0.01098946420693266, -0.028081934704089984, 0.0014076340213175812, 0.12614328173104472, -0.002410319884984597, 0.15042962171152924, 0.09952789354794092, 0.07740663766214177, -0.05828034537092954, -0.023474811027931645, -0.07357797302349926, 0.03326999301047185, -0.005364893756672755, 0.03533585141622611, 0.024201958123313272, 0.01342775741221945, -0.028552715216770563, -0.0778393283234156, -0.03533481707255406, 0.057329296234318976, -0.01311059818850982, -0.004801986739227412, 0.06942487997953907, 0.03900610633051264, -0.11798462725355491, -0.006433036007466426, -0.06970356761521578, -0.004334652659469165, 0.03122169173908794, 0.04075318709217633, 0.13310276770214297, -0.04006535083341723, -0.023595485096479938, 0.045922239409135694, 0.0769588843167378, -0.08251393368747502, 0.054937371749029545, 0.05323831639525334, -0.012028532365346949, -0.022488150056356435, 0.05861182760999932, 0.03417360442023055, 0.03205623941074442, -0.05854344669417349, -0.13778425982262776, -0.007520256485449135, -0.021687910670347536, 0.03665185625708221, -0.061161037773373686, 0.05077576009148956, 0.03276872639169818, -0.05921033865692541, 0.07560231553423244, -0.027433319287681734, -0.05571753376603677]], "b": [0.0, 0.0, 0.0, 0.0, 0.0, 0.0, 0.0, 0.0, 0.0, 0.0, 0.0, 0.0, 0.0, 0.0, 0.0, 0.0, 0.0, 0.0, 0.0, 0.0, 0.0, 0.0, 0.0, 0.0, 0.0, 0.0, 0.0, 0.0, 0.0, 0.0, 0.0, 0.0]}, {"W": [[-0.010842604845208438, -0.00117702086655883, -0.0724042708142648, 0.049611139635106244, -0.0007323769502358291, -0.060657062683927655, -0.14031726792150667, 0.034113390316780456, 0.007921904190972145, 0.009550623307263403, 0.11014595807182223, -0.19924918657789129, 0.10153658522758345, 0.10910391689402837, -0.07840607173226764, 0.08117397815081262, -0.0649568088041748, -0.08340046472946909, -0.008111643770663536, 0.14621210220170627, 0.02893339337297597, 0.003988112592450081, 0.0708542630560245, -0.049799816029613544, 0.11980116527025107, 0.12564964765041609, 0.03433683031003006, -0.06306139151773402, 0.08576123803078053, 0.02357536266220659, 0.05149314276291955, 0.09092536069501803]], "b": [-3.9031730111362193]}]}